|--- feature_9 <= 0.50
|   |--- feature_37 <= 7073.50
|   |   |--- feature_7 <= 12.50
|   |   |   |--- feature_38 <= 2218.50
|   |   |   |   |--- feature_39 <= 40.50
|   |   |   |   |   |--- class: 0
|   |   |   |   |--- feature_39 >  40.50
|   |   |   |   |   |--- class: 0
|   |   |   |--- feature_38 >  2218.50
|   |   |   |   |--- feature_38 <= 3253.50
|   |   |   |   |   |--- class: 1
|   |   |   |   |--- feature_38 >  3253.50
|   |   |   |   |   |--- class: 0
|   |   |--- feature_7 >  12.50
|   |   |   |--- feature_39 <= 43.50
|   |   |   |   |--- feature_0 <= 33.50
|   |   |   |   |   |--- class: 0
|   |   |   |   |--- feature_0 >  33.50
|   |   |   |   |   |--- class: 0
|   |   |   |--- feature_39 >  43.50
|   |   |   |   |--- feature_0 <= 27.50
|   |   |   |   |   |--- class: 0
|   |   |   |   |--- feature_0 >  27.50
|   |   |   |   |   |--- class: 0
|   |--- feature_37 >  7073.50
|   |   |--- feature_0 <= 20.00
|   |   |   |--- class: 0
|   |   |--- feature_0 >  20.00
|   |   |   |--- feature_37 <= 8296.00
|   |   |   |   |--- feature_7 <= 11.50
|   |   |   |   |   |--- class: 0
|   |   |   |   |--- feature_7 >  11.50
|   |   |   |   |   |--- class: 1
|   |   |   |--- feature_37 >  8296.00
|   |   |   |   |--- feature_37 <= 30961.50
|   |   |   |   |   |--- class: 1
|   |   |   |   |--- feature_37 >  30961.50
|   |   |   |   |   |--- class: 1
|--- feature_9 >  0.50
|   |--- feature_7 <= 12.50
|   |   |--- feature_37 <= 5095.50
|   |   |   |--- feature_7 <= 8.50
|   |   |   |   |--- feature_38 <= 1791.50
|   |   |   |   |   |--- class: 0
|   |   |   |   |--- feature_38 >  1791.50
|   |   |   |   |   |--- class: 0
|   |   |   |--- feature_7 >  8.50
|   |   |   |   |--- feature_0 <= 35.50
|   |   |   |   |   |--- class: 0
|   |   |   |   |--- feature_0 >  35.50
|   |   |   |   |   |--- class: 0
|   |   |--- feature_37 >  5095.50
|   |   |   |--- feature_0 <= 60.50
|   |   |   |   |--- feature_28 <= 0.50
|   |   |   |   |   |--- class: 1
|   |   |   |   |--- feature_28 >  0.50
|   |   |   |   |   |--- class: 0
|   |   |   |--- feature_0 >  60.50
|   |   |   |   |--- feature_20 <= 0.50
|   |   |   |   |   |--- class: 1
|   |   |   |   |--- feature_20 >  0.50
|   |   |   |   |   |--- class: 0
|   |--- feature_7 >  12.50
|   |   |--- feature_37 <= 5095.50
|   |   |   |--- feature_38 <= 1782.50
|   |   |   |   |--- feature_39 <= 31.00
|   |   |   |   |   |--- class: 0
|   |   |   |   |--- feature_39 >  31.00
|   |   |   |   |   |--- class: 1
|   |   |   |--- feature_38 >  1782.50
|   |   |   |   |--- feature_38 <= 1989.50
|   |   |   |   |   |--- class: 1
|   |   |   |   |--- feature_38 >  1989.50
|   |   |   |   |   |--- class: 1
|   |   |--- feature_37 >  5095.50
|   |   |   |--- feature_0 <= 84.50
|   |   |   |   |--- feature_17 <= 0.50
|   |   |   |   |   |--- class: 1
|   |   |   |   |--- feature_17 >  0.50
|   |   |   |   |   |--- class: 1
|   |   |   |--- feature_0 >  84.50
|   |   |   |   |--- feature_4 <= 0.50
|   |   |   |   |   |--- class: 1
|   |   |   |   |--- feature_4 >  0.50
|   |   |   |   |   |--- class: 0